-0.0771416
0.455946
-0.125863
-1.00899
-0.505323
-0.595675
-0.21371
-0.514209
-0.649421
-0.461531
-0.714977
-1.00193
-0.094883
-0.436981
-0.799187
-0.564809
-0.991493
-0.364494
-0.107649
-1.48538
-0.83572
-0.505894
-0.296955
-0.599746
-1.16141
-0.323335
-0.975356
-0.710139
-0.956484
-0.784458
-0.258138
0.0164759
-1.14208
-0.645511
-1.57098
-0.90128
-1.02597
-0.264216
0.013051
-0.547116
0.0262015
0.48072
0.0158935
0.223374
0.266246
0.354919
0.192144
0.235459
0.804241
0.465182
0.673392
0.355359
0.754706
0.632544
0.361846
0.338533
0.585211
0.748569
-0.0723252
0.000843442
0.720336
0.458098
0.101468
0.341484
0.0262076
0.551879
0.762392
0.655757
0.0170631
0.652718
0.12601
0.173517
0.646841
0.0898515
0.797369
-0.104682
-0.00636658
-0.0252131
0.10648
-0.0352378
0.756785
0.0505034
0.874448
0.345386
0.700988
0.595632
-0.157432
0.276207
0.627303
0.0645627
0.0654957
-0.00815343
0.100003
0.284116
0.670233
0.016701
-0.0602186
0.875686
0.331887
0.604346
0.850467
-0.0409396
0.537174
0.307053
-0.0733067
0.285868
0.695153
0.138196
0.578466
-0.0369546
0.868613
0.566724
-0.0242849
0.742366
0.514211
-0.10662
0.797512
0.0124902
0.285314
0.39748
-0.0131215
0.0702009
0.287107
0.0255106
-0.0741304
-0.0269354
0.0924885
0.871687
0.847
0.456981
0.539297
0.487911
-0.0257418
-0.123577
-0.125639
0.727415
-0.35368
0.310607
0.408773
0.652933
0.50854
-0.262017
0.411022
0.176828
0.175732
0.597876
-0.122149
0.332743
0.037452
0.067729
-0.0999064
0.874634
0.0522005
0.137762
0.61086
0.380496
0.784344
0.713262
0.676111
-0.310064
0.43028
0.482009
0.645466
0.858791
0.628895
0.0253609
0.404492
0.994507
0.24308
0.33961
0.329325
0.603809
0.304727
0.362743
0.00476089
0.235511
0.757927
0.991638
0.0533464
0.582965
0.339335
0.0653096
0.309824
0.585894
0.398389
0.530442
0.450545
0.166723
0.812677
0.31904
0.484481
0.383221
0.65569
0.970946
0.011475
0.277963
0.772576
0.531205
0.654653
0.206885
0.920438
0.754387
0.572558
0.927091
0.629292
0.146702
0.457991
0.225837
0.439924
0.877316
0.929228
0.372082
0.675069
0.0897549
0.719901
0.171026
0.399945
0.645497
0.574389
0.903897
0.728599
0.829951
0.254067
0.933317
0.131993
0.052797
0.561571
0.256386
0.90463
0.0738243
0.788446
0.785943
0.445204
0.785119
0.493271
0.641652
0.508438
0.0813623
0.0159001
0.232246
0.0834071
0.849269
0.634266
0.409955
0.0553911
0.607227
0.770104
0.478378
0.307138
0.826838
0.149724
0.335185
0.41551
0.467208
0.326182
0.530869
0.600696
0.753258
0.468764
0.524735
0.0828883
0.729728
0.826655
0.91934
0.504166
0.62154
0.772454
0.954802
0.57036
0.532151
0.832057
0.0440382
0.570482
0.511185
0.607227
0.630482
0.928922
0.522202
0.996826
0.148808
0.44734
0.342296
0.623218
0.371044
0.392285
0.924436
0.870052
0.918332
0.0844447
0.254189
0.437452
0.219947
0.146519
0.231513
0.821284
0.701071
0.0653096
0.609516
0.62215
0.480026
0.224464
0.520798
0.0911893
0.356822
0.0644246
0.623127
0.818049
0.373699
0.525285
0.39555
0.96765
0.729453
0.429243
0.615894
0.972564
0.328135
0.958953
0.5515
0.0860317
0.744377
0.887265
0.893735
0.703207
0.885281
0.715903
0.968169
0.855556
0.131413
0.377941
0.25132
0.785882
0.237159
0.661458
0.725303
0.00949126
0.772362
0.00985748
0.101321
0.767937
0.385998
0.855495
0.444258
0.281472
0.673635
0.142705
0.228004
0.706778
0.92935
0.196722
0.354472
0.205908
0.56389
0.594287
0.166204
0.0328684
0.470168
0.192541
0.984802
0.0439467
0.116825
0.70338
0.0186035
0.214005
0.372379
0.534685
0.115745
0.365899
0.623004
-0.222625
-0.504655
0.0824979
0.545681
0.446503
0.0796064
0.28251
-0.0925502
0.253427
0.70016
0.618287
-0.259421
0.593835
0.702961
0.295099
0.448581
-0.402594
0.502179
0.416668
-0.105783
0.396088
0.770806
0.331839
0.2238
0.190563
0.0333846
0.268063
0.188608
0.189547
0.401489
0.561888
0.415237
-0.0995061
0.259379
0.149603
-0.416955
0.20157
-0.15588
0.137853
0.439431
0.390233
-0.274335
-0.839766
0.331933
0.458132
0.133456
-0.255136
0.673946
-0.428604
-0.319006
-0.217936
-0.642062
-0.205734
-0.593311
0.163877
0.237761
0.112427
-0.0912455
-0.0886084
-0.557978
-0.522044
-0.642184
-0.126334
-0.29451
-0.101394
-0.560291
-0.867678
-0.0598696
-0.570544
-0.00412106
0.104156
0.269615
0.726211
0.214911
0.20841
0.842632
0.378963
0.646017
0.658064
0.0872474
0.124247
-0.0719211
-0.0768615
0.263416
0.740501
-0.15528
0.0625158
-0.0908675
0.862386
0.798962
-0.0425747
0.0136511
0.285007
0.112073
0.653887
0.106656
-0.100253
0.417514
0.494059
0.163896
-0.124704
0.622261
-0.0279692
0.821409
0.847039
0.0710163
0.11927
0.353833
0.727747
0.32803
0.379166
0.45692
-0.0889982
0.89115
0.817631
0.0676284
0.417357
0.569377
0.538427
0.40139
0.48367
0.673569
0.367402
0.539322
0.86274
0.495171
0.122113
0.726944
0.597312
0.925055
0.258842
-0.162827
0.429294
0.777518
0.0724533
0.00083925
0.329576
0.542527
0.0277708
0.189629
0.86165
0.0784381
0.576214
0.341101
0.66215
0.199354
0.481778
0.730912
0.76834
0.675406
0.402231
0.376679
0.0618009
0.428489
0.63534
0.734529
0.539732
-0.206148
-0.0150775
-0.0613945
0.218036
0.192838
0.670668
-0.292412
-0.0314639
-0.172422
0.541179
0.317245
-0.574232
-0.219588
0.189258
0.24734
0.337441
0.472969
0.610042
0.265746
-0.512942
0.116102
-0.223415
0.43077
-0.548646
-0.211328
0.511577
0.382138
0.224921
-0.4271
0.209423
-0.549238
0.473841
0.60487
0.273726
-0.201606
-0.0274733
0.0250618
0.224886
-0.80871
0.0758499
0.230237
0.420981
0.130831
-0.0382707
-0.591687
-0.0801904
-0.635708
-0.0539593
-0.692121
-0.254614
-0.368829
-1.12715
-0.701392
-0.952167
-0.815441
-0.0441336
-0.606244
0.425521
-0.938342
0.0524489
0.0352799
0.0673389
-0.893166
-1.09259
-1.05425
-0.277223
-0.62565
0.527159
-0.376932
-0.62424
-0.0894268
-0.782782
-0.115094
-0.497823
0.0192474
0.786584
0.511917
0.833766
0.73751
0.829951
0.40669
0.818964
0.54088
0.840266
0.0226753
0.30546
0.251686
0.675222
0.179907
0.153966
0.825526
0.355419
0.655049
0.0194708
0.842769
0.00338755
0.988952
0.0531022
0.0282601
0.409833
0.4138
0.246406
0.84344
0.382611
0.43025
0.824641
0.931455
0.5356
0.0661946
0.594867
0.697501
0.673025
0.348918
0.655812
0.80517
-0.0534681
-0.284199
-0.11194
0.301836
-0.316532
-0.703484
-0.810168
-0.103491
0.122004
0.299794
-0.740182
-0.111613
0.172428
-0.75539
-0.177117
0.195594
-0.641037
-0.0762286
-0.255288
0.108086
-0.128564
0.144687
0.026462
0.239134
-0.485948
-0.00440763
-0.505238
0.146669
0.424278
0.248254
0.0836676
0.0852645
-0.707964
-0.156632
-0.540881
-0.361967
0.135604
0.140788
0.467195
0.191267
0.00545915
0.325992
0.551678
-0.0797853
0.498916
-0.236402
0.486525
0.253531
0.723632
0.770509
-0.300111
0.148125
-0.11856
0.313932
0.760443
0.715142
-0.0570058
0.491174
0.354338
0.117367
0.169142
0.171507
0.569505
-0.300845
0.772426
0.559012
0.781535
0.482931
-0.000929483
0.214867
0.146904
-0.220212
0.142823
-0.219153
0.634356
-0.126166
0.556379
0.349037
0.4795
0.670537
0.178993
0.14629
0.271119
0.60205
0.318641
0.302564
0.215176
0.351438
0.423623
0.31033
0.868463
-0.0840321
0.281401
0.523677
-0.0199592
0.720701
0.330821
-0.0667198
0.169875
0.121084
0.0789861
0.122132
0.581672
0.0625085
-0.116658
0.879222
0.478074
0.370226
0.00853105
0.798995
0.017172
0.62698
0.303359
0.842262
0.0482549
0.828049
0.630535
-0.000221474
0.831047
0.474149
0.66839
0.353437
0.655429
0.528822
0.102296
0.848145
0.152644
0.434009
0.0739692
0.4483
0.757043
0.0359264
0.46708
0.423276
0.385476
0.0560669
0.463349
0.90673
0.640641
-0.111745
-0.0251443
0.692888
0.376209
0.128529
0.82591
0.152467
0.613093
0.477997
-0.0976193
0.860768
0.350495
0.742994
0.490943
0.101777
0.641171
0.54741
0.739782
0.220501
0.805242
0.836906
0.197215
-0.0366675
-0.0346627
0.596855
0.190109
0.554697
0.129161
0.435906
0.171642
0.548483
-0.41802
0.675383
0.134782
0.55858
0.153455
0.556067
-0.204971
0.0694721
-0.22721
0.0681692
0.72334
0.536005
-0.180152
0.641476
0.0301956
0.493488
0.324169
0.748145
-0.200787
0.430877
0.43966
0.334877
-0.0168052
0.0676419
0.295398
-0.0648974
0.763873
0.392042
0.541062
-0.49519
0.0429544
0.827459
0.771962
0.561792
0.808876
0.293189
0.794585
-0.130408
0.488743
0.626714
0.595328
0.715119
-0.00241661
0.67153
0.703327
0.868552
0.197724
0.0220256
0.00915879
0.528136
0.659601
0.518431
0.221148
0.151437
0.477954
0.521459
0.72261
0.204943
-0.149433
0.58678
0.506303
0.609492
0.998715
0.650822
0.789236
-0.154096
0.695798
0.610938
0.171669
0.39139
0.308521
-0.00808727
0.257316
-0.117547
0.269586
0.780701
0.486865
0.025935
-0.0581875
0.153506
-0.206942
0.105715
0.591867
-0.165239
0.116218
-0.22729
0.0681218
0.265042
-0.191526
-0.210102
0.0084253
-0.121848
0.0276949
0.583517
0.494736
-0.107031
-0.0446271
0.0841105
-0.0849529
0.346088
0.318511
0.485839
0.0615294
-0.478608
-0.407842
0.314997
0.183303
-0.0145748
0.0135126
0.0302104
0.533875
0.654999
0.262217
0.0628869
0.334012
0.0370969
-0.452077
0.589664
-0.0499562
-0.304879
0.12093
-0.283214
0.246211
-0.172388
0.036513
-0.418731
0.443918
0.321118
0.200773
0.140202
-0.265989
0.533131
0.420041
0.422223
-0.161758
0.15621
0.629602
-0.380208
-0.333716
0.59396
0.288053
0.645812
-0.00624397
0.744903
0.296218
0.523429
-0.210718
0.251639
0.658342
-0.286896
0.205227
-0.0864279
0.211129
0.545231
0.353721
-0.245898
0.499708
-0.0587572
0.531809
0.00806516
-0.362827
0.571156
0.142592
-0.0113271
-0.00301235
0.0454647
0.394463
-0.0659213
-0.213419
0.395005
0.160165
0.248711
0.390134
0.626496
0.602985
0.607135
0.0480268
0.503027
-0.273165
0.55642
0.737811
-0.198563
0.00409711
0.170045
-0.231879
0.420596
0.441211
0.45668
-0.0572313
-0.139434
0.330365
0.329728
0.184855
0.263733
0.673536
0.640072
-0.0723718
0.72296
-0.209955
0.507471
-0.258953
0.121945
0.100792
0.338338
0.54064
-0.119913
0.241307
0.114621
0.433967
-0.00653684
0.47799
0.764648
0.756037
0.596499
-0.133163
0.824044
0.607642
0.155216
0.302035
0.087659
0.303428
0.0706653
0.328796
0.608279
0.325706
0.354177
-0.256638
0.372553
0.376067
-0.408488
0.425522
0.206358
0.223939
0.130011
0.59629
0.5161
0.163721
-0.136785
0.697664
0.0455177
0.607915
0.0416482
0.39411
0.125728
0.555302
0.0194591
-0.199538
0.259531
0.522216
0.352711
0.632365
-0.204555
0.0800378
-0.333103
0.795593
0.21184
-0.0647605
0.273778
-0.416954
-0.036115
-0.0406372
0.0525037
0.406301
0.209309
0.326529
0.659971
0.702749
-0.226814
0.4889
0.662144
0.745206
0.310538
0.621004
0.439667
0.374801
0.142846
0.217989
0.29334
-0.151105
-0.108082
-0.100111
0.780779
0.818985
0.16478
0.296855
0.046888
0.074306
0.574089
0.0552777
-0.274996
0.457606
0.150153
0.865326
0.763457
0.71973
0.788124
0.714573
0.292995
0.223463
0.571734
0.088078
0.713801
0.105936
0.358567
0.402376
0.619309
0.31352
0.262314
-0.0921025
0.575363
0.232755
0.145362
0.319875
0.606266
0.896671
-0.0751507
0.911464
0.831956
0.0581823
0.87418
0.625693
0.255968
0.777972
0.74685
-0.0427808
0.266577
0.264988
0.327054
0.0874593
0.0642917
0.791287
0.143725
0.115212
-0.0771246
0.221316
0.1537
0.366019
0.67297
0.115259
0.104297
0.449294
0.535485
0.406132
0.923584
0.300273
0.0281325
0.739966
0.164739
0.544779
0.07073
0.569853
0.564545
0.125215
0.706379
0.677466
0.182625
-0.0536109
0.257486
0.264041
0.484071
0.289523
0.726823
0.237208
0.557011
0.752005
0.204371
0.258632
-0.153883
-0.168719
0.339878
0.447128
0.197546
0.64825
0.585374
0.118683
-0.163319
0.620537
0.473552
-0.271104
-0.120613
0.127347
0.343083
0.0788083
0.43926
-0.20419
0.536881
-0.0142123
0.395842
0.565717
0.203972
0.171834
0.410586
-0.0756993
0.632366
0.246543
0.352561
-0.256446
0.907748
-0.00923282
-0.0362845
0.709712
0.220207
0.368871
0.0636622
-0.125931
0.408922
0.178983
0.162133
-0.0412794
0.0975284
0.382797
0.716306
0.0704975
0.423192
0.417011
0.874807
0.668316
0.234969
0.720698
0.484234
0.694406
0.478576
-0.0881316
0.513524
-0.201986
0.513526
0.393366
-0.136685
-0.101673
0.242285
0.335773
0.128134
0.733519
0.627277
0.172305
0.654773
0.151577
-0.20382
0.726007
-0.033965
0.0440393
0.358901
0.226704
0.0341816
-0.185441
0.334865
0.0666479
0.0993037
0.122051
0.210807
0.381343
0.418352
0.108776
0.00481931
0.685696
0.35446
0.230823
-0.0333943
0.344006
0.128011
0.0236689
0.572215
0.62849
0.184453
-0.14012
0.40062
-0.0930006
-0.00162247
-0.269316
0.330017
0.567855
0.356487
0.00878875
-0.10604
0.55514
-0.119662
-0.163862
0.519762
0.162202
0.0202493
0.566193
0.489455
0.187556
0.587111
0.352746
0.570478
-0.0226883
0.0573861
0.641076
0.23745
0.0876905
0.604182
0.287491
0.380023
0.170854
0.0376677
0.128399
0.656536
0.27012
0.156431
-0.0743243
0.24443
0.457679
0.465488
0.729749
0.555559
-0.0150451
0.316138
-0.0599912
0.601575
-0.00513646
0.636102
0.839882
0.816172
0.0245036
0.35349
0.428205
0.303826
0.0738206
0.908936
0.632577
0.429314
0.229847
0.314755
0.818198
0.042455
0.543982
0.546507
0.883414
0.367802
0.232949
0.00804298
0.543001
0.644607
0.0797921
0.151008
0.071118
0.160674
0.395161
0.00592283
0.282449
0.0295725
-0.0554252
0.34996
0.523426
0.428259
0.188836
0.452936
0.527236
0.730136
0.262032
0.941069
0.960265
0.17481
0.891903
0.626545
0.360149
0.0611591
0.609516
0.439497
0.736869
0.345408
0.929472
0.713462
0.957579
0.323099
0.774224
0.753899
0.387585
0.553087
0.00289926
0.876431
0.900754
0.451308
0.754784
0.00173956
0.219916
0.89462
0.763237
0.338267
0.993835
0.615192
0.296945
0.184027
0.516251
0.667653
0.88403
0.379009
0.494339
0.749351
0.475753
0.439009
0.771844
0.655721
0.205939
0.902402
0.413739
0.651357
0.402387
0.921201
0.0583209
0.0385449
0.00631733
0.627216
0.943358
0.704306
0.0564592
0.305216
0.511917
0.927122
0.393719
0.903714
0.00503555
0.224586
0.242805
0.914853
0.946623
0.523759
0.827296
0.155004
0.927122
0.4344
0.673666
0.476699
0.592608
0.907529
0.761528
0.943541
0.244942
0.0595111
0.175542
0.499283
0.959532
0.444075
0.415632
0.662374
0.626942
0.551958
0.021485
0.276894
0.824671
0.8211
0.668142
0.851741
0.925138
0.937498
0.387982
0.51854
0.346263
0.708243
0.0764183
0.140294
0.351054
0.28843
0.936888
0.601672
0.30192
0.0423902
0.0212104
0.811731
0.776666
0.821345
0.522599
0.451338
0.451735
0.937895
0.976135
0.995849
0.159734
0.619495
-0.102409
-0.00219089
-0.123997
0.0576406
0.816369
0.571231
0.0774448
0.670997
0.328211
0.0703224
0.300355
0.428074
0.676357
-0.0910028
0.376345
0.474187
-0.00066843
-0.264741
0.0493084
0.162829
0.00498307
-0.270816
0.326511
-0.149481
0.138903
0.670407
0.174189
-0.0774482
-0.215804
-0.0945804
0.640016
0.258077
0.891782
0.567363
0.409301
-0.0610685
-0.0116325
0.549768
0.737863
0.36465
0.509766
0.467151
-0.325702
0.56578
0.392312
0.27048
-0.567465
0.553422
-0.506851
-0.372367
-0.0937293
0.430278
-0.0802785
-0.388709
0.0302937
-0.611543
-0.576621
-0.180437
0.0856989
0.266786
-0.0721113
0.625933
0.516331
0.00787102
-0.659653
-0.00794908
-0.17213
-0.402981
0.00345161
0.0401119
0.458375
0.214037
-0.615045
0.532613
-0.437138
0.542154
0.396724
-0.39267
0.650581
-0.399237
0.500845
0.16627
0.67091
0.0939939
0.815413
0.759067
0.146126
0.483366
0.339966
0.385332
-0.283964
0.51492
0.572318
0.614362
0.281783
0.861465
-0.0416559
0.62612
0.539231
-0.246883
0.0989015
0.176223
0.848694
0.79491
0.414923
0.71957
-0.0198771
0.0359165
0.440305
0.729131
0.814899
0.434467
-0.0339241
0.244749
0.431193
0.290414
0.851468
-0.172253
0.285818
0.454724
-0.204466
0.571793
-0.00465004
0.204415
0.762517
0.33157
-0.178558
0.159034
0.544937
-0.177288
0.348791
0.754101
-0.157615
0.725737
0.00410857
0.598189
0.525377
-0.169842
0.186228
0.47335
-0.178089
0.376585
0.616648
0.324114
0.392948
-0.00383929
0.743794
0.162273
0.165011
0.402942
0.393573
0.825112
0.349855
0.21143
0.249074
-0.186696
0.722594
0.345984
-0.223275
0.31948
0.388134
0.199927
0.955626
0.821986
0.202948
0.478713
0.81872
0.526902
0.0277718
0.71868
0.355785
0.943602
0.297494
0.539598
0.434614
0.78753
0.409162
0.619831
0.911161
0.317484
0.606494
0.668203
0.839167
0.331767
0.116153
0.639882
0.947264
0.361644
0.692404
0.727836
0.790063
0.843501
0.22599
0.160558
0.479171
0.55034
0.573931
0.338298
0.400616
0.0648213
0.0472523
0.206758
0.723024
0.448846
0.0791342
0.101199
0.647111
0.683685
0.139865
0.704544
0.0303265
-0.0676048
0.116039
0.629486
-0.142348
0.251182
-0.160994
0.160554
0.19142
0.0818056
0.672323
0.481326
0.599999
-0.0942124
0.440255
0.0520376
0.702387
0.505876
0.827254
0.239171
0.406361
0.806053
-0.065692
0.358566
-0.129804
0.700076
0.364665
0.268876
0.654163
0.718714
-0.261532
-0.155328
0.265331
0.594742
-0.277714
-0.287054
0.376671
0.460903
-0.40279
0.323309
-0.310668
0.0698611
-0.0801883
0.292956
-0.231329
-0.110644
-0.0747654
0.698469
-0.541948
-0.227615
-0.520583
-0.0776122
0.476406
0.12737
-0.0494353
-0.180583
-0.00737003
0.512958
-0.351635
0.625479
0.0789693
0.11112
0.0125017
-0.30108
0.0882786
0.0461223
0.652184
0.259223
-0.195641
0.0234853
-0.206522
-0.147335
0.67498
-0.196825
-0.0559514
0.257938
-0.207131
0.930487
-0.0719527
-0.249815
-0.458475
-0.249801
0.673621
0.436734
0.0166334
-0.118597
0.0973997
0.929208
-0.306376
0.0620322
-0.611658
0.374572
0.634348
0.482815
0.0699367
-0.146925
0.520262
0.667638
-0.337814
0.388753
0.0456625
-0.193698
-0.223342
-0.21037
-0.451823
-0.0914582
0.259908
0.0163681
-0.317346
0.601325
-0.000716986
-0.0360783
0.645596
-0.0440484
-0.398123
0.120065
0.721523
0.418557
-0.490169
0.044862
-0.0688278
-0.319856
0.0592871
0.26264
0.126656
-0.253356
0.23815
0.027323
0.134971
0.466558
0.412322
0.245905
-0.238436
0.520015
-0.133681
0.0690443
0.563578
0.765231
-0.230587
-0.0725163
0.377845
0.554954
-0.178637
0.351611
-0.464317
-0.236676
-0.0908464
0.221531
-0.373865
-0.0320608
-0.0669694
0.00983513
0.219149
-0.00110759
-0.117347
0.407037
0.323495
0.465615
-0.621176
-0.281761
-0.0352577
0.430052
-0.281829
-0.235137
0.281805
-0.278446
0.244748
0.666245
0.185041
0.226971
-0.205385
-0.22283
-0.0420605
-0.177401
-0.388752
0.537193
-0.147472
0.687771
0.287197
0.314397
-0.244364
0.547485
0.123618
-0.187717
0.284901
0.0910788
0.192043
0.754849
-0.574025
0.196195
0.685232
0.49761
-0.396799
0.639974
0.404412
-0.0387123
0.21415
0.517333
0.0711013
0.259827
0.0578053
-0.19105
-0.512377
-0.288963
0.433859
-0.103671
0.394237
0.321902
0.05567
-0.0728711
0.356814
-0.0936008
-0.315813
-0.246062
-0.367872
-0.329038
0.0292328
-0.103825
0.128827
0.494866
0.213738
-0.117494
0.266136
0.460206
0.0902131
0.514876
0.806732
0.298334
0.0971859
0.554929
-0.338945
-0.11007
0.338675
-0.282881
-0.1344
0.236462
0.529465
0.538067
0.283133
0.060344
0.289932
0.401702
-0.486474
0.398859
-0.5931
-0.372678
-0.121515
-0.0256155
0.172669
-0.126232
-0.228856
0.240261
-0.00758422
0.168629
-0.303
0.144444
-0.120922
0.489636
-0.628861
-0.201452
0.0460841
0.397179
0.328167
0.129196
-0.0811138
-0.0797089
-0.2883
0.0809095
-0.375255
-0.0465249
-0.00756558
0.309816
0.52363
0.00703368
0.300349
0.0212624
-0.0221816
0.454207
-0.431356
0.440255
-0.271783
0.182761
0.00632915
0.261149
-0.270344
-0.289742
0.591475
0.155302
-0.171377
-0.0130934
0.307719
-0.0382592
-0.0876586
-0.379528
-0.306651
-0.276072
-0.143601
0.682792
0.133257
0.560478
-0.238669
0.0371016
0.260629
0.464216
0.468696
-0.146572
0.64993
0.433949
-0.172913
0.0495694
0.240214
0.0671253
-0.0690206
0.289255
-0.182492
0.174524
0.636832
-0.177388
0.960602
0.538126
0.273455
-0.335187
-0.40907
-0.211198
0.164601
0.354006
0.276845
-0.199615
0.0533473
-0.217013
-0.331152
0.0521074
0.106575
-0.261491
-0.325375
-0.222701
0.684815
0.560672
0.152487
-0.0447094
-0.240676
0.475483
-0.24958
0.392666
-0.416744
0.453699
-0.185211
0.0872927
-0.494971
0.32778
-0.0918771
0.608276
0.443737
-0.0615974
-0.0916246
0.550234
-0.0163636
0.884479
-0.437248
0.392735
0.511435
-0.364962
-0.0503655
0.107888
-0.182573
-0.322642
0.198574
-0.170123
-0.385689
0.0958283
0.500407
-0.12
0.368881
0.349555
0.546345
0.589225
0.363837
0.614032
0.359853
0.0533852
-0.0548716
0.224616
-0.137695
0.289125
-0.250188
-0.0183889
0.611129
0.151934
-0.23438
0.314924
-0.434011
0.110937
0.304126
0.10713
0.0750223
0.588425
-0.0313377
0.15551
-0.0457046
0.622366
0.316536
0.0315193
0.127116
-0.157233
-0.549575
0.128819
0.425434
0.468145
-0.385884
0.607733
-0.0939857
-0.302675
0.00117606
0.350249
-0.394405
0.242471
0.364208
0.642837
-0.124848
-0.10927
-0.297936
0.197415
-0.437718
0.300577
0.280653
0.265772
0.514559
0.642862
-0.162115
0.530574
0.813471
0.898282
0.359569
0.214086
-0.289958
0.291731
0.522616
-0.407766
0.0837283
0.168105
0.44547
-0.139107
0.314417
0.111018
0.562276
0.224738
-0.0452778
0.0992267
-0.0271717
0.0804786
0.0531525
0.555281
-0.251858
-0.43523
0.155986
0.580777
0.595019
-0.0660829
-0.0915673
0.484273
