-0.851602
-0.841678
-0.848259
-0.93029
-0.910833
0.0573796
-0.635674
-0.329597
-0.178277
-0.854102
-0.640634
-0.448156
0.195233
-0.0767551
-0.465349
-0.749409
-0.842128
-0.434765
-0.823835
0.194409
-0.0351261
-0.440832
-0.206136
-0.943355
-0.401401
-0.0903208
-1.01703
-1.06961
-0.208196
-0.810608
0.00329569
-0.0144849
-0.0656198
-0.435136
-0.372867
-0.492399
-0.0431836
-0.544226
-0.0417982
-1.06514
0.306692
0.628898
0.714385
0.281144
0.31673
-0.0559091
-0.428171
0.258931
1.05821
0.706792
0.156058
0.892274
0.625676
0.126453
0.439857
0.28466
1.08044
0.193472
0.590827
0.777028
1.09847
-0.0468748
0.330315
0.0565537
0.956033
1.33848
-0.173548
0.424884
0.539804
-0.280309
1.00694
0.605564
0.323485
0.837279
1.04387
-0.150741
0.949611
0.396286
0.106943
-0.19997
0.496541
0.613114
-0.0869982
0.706159
0.393846
0.6122
0.44604
0.740141
0.00237925
-0.0318608
0.637476
-0.0118203
0.174315
-0.0481558
-0.0391429
-0.182353
-0.328398
-0.0875699
0.82997
0.596089
-0.213239
0.715408
-0.256472
0.389467
-0.23504
-0.29444
0.0705676
0.411585
0.236707
0.00312556
-0.207788
0.0100962
-0.109037
-0.0244073
0.307758
0.599082
0.710232
0.158549
0.344251
-0.354872
0.179638
0.20339
0.658625
0.521946
0.384787
-0.591476
0.405831
0.914591
-0.226563
0.506586
0.122674
0.146049
-0.0172204
-0.0529547
-0.35993
0.42546
0.0440664
-0.0545497
0.878212
-0.189052
-0.00633642
0.126735
-0.254139
-0.863396
0.622292
-0.336975
-0.0503375
0.384287
0.892752
0.145864
0.625759
-0.0148607
0.29464
0.116098
-0.0327272
-0.0149856
0.711707
0.498796
0.134516
-0.278338
0.505539
0.760216
0.116001
0.581225
0.411573
0.271371
0.0529801
0.884304
0.584094
0.237098
0.52028
0.945463
0.341472
0.151952
0.185186
0.810175
0.905362
0.77749
0.984252
0.505295
0.185675
0.911466
0.440626
0.211707
0.888546
0.190161
0.882199
0.735496
0.726951
0.580401
0.590869
0.184362
0.0168767
0.716758
0.415174
0.25547
0.43907
0.741264
0.876827
0.0404981
0.247963
0.801019
0.302499
0.755028
0.709586
0.860378
0.0126957
0.297586
0.0486465
0.983642
0.0980255
0.0452284
0.687338
0.745048
0.814936
0.791711
0.0554827
0.921598
0.131626
0.234169
0.755242
0.125553
0.455947
0.915586
0.35963
0.53267
0.0755943
0.0276498
0.627796
0.362194
0.34315
0.982086
0.417096
0.265145
0.13596
0.155034
0.0738853
0.277261
0.622944
0.712302
0.584033
0.492203
0.869106
0.920133
0.264382
0.112125
0.309397
0.849086
0.276681
0.031373
0.622913
0.876675
0.744743
0.609333
0.0383923
0.894986
0.756615
0.789331
0.603351
0.629505
0.0326853
0.219398
0.446394
0.97586
0.540971
0.531175
0.565844
0.760033
0.840999
0.43318
0.174291
0.828944
0.437452
0.775079
0.131626
0.877163
0.924924
0.238563
0.496567
0.916288
0.204627
0.811823
0.72924
0.793085
0.555071
0.702841
0.574877
0.662832
0.837062
0.849239
0.160772
0.823908
0.614948
0.679342
0.337168
0.81991
0.475265
0.281869
0.793512
0.215674
0.323557
0.639882
0.981567
0.953429
0.941252
0.0854213
0.37611
0.694998
0.583239
0.631458
0.105167
0.0570391
0.898282
0.336314
0.480148
0.144719
0.952147
0.35847
0.458113
0.290689
0.63628
0.856197
0.566515
0.405072
0.241951
0.389721
0.322336
0.843623
0.481948
0.981445
0.676656
0.199042
0.740654
0.490371
0.51558
0.92288
0.833857
0.457747
0.74929
0.183355
0.0598773
0.0790429
0.0202033
0.866359
0.822596
0.4597
0.56151
0.124332
0.60802
0.8099
0.23722
0.381329
0.595996
0.735252
0.295358
0.198462
0.68746
0.279458
0.865078
0.90759
0.0122714
0.799674
0.225756
-0.155092
-0.247851
0.1942
-0.400362
-0.120328
0.0886659
0.391441
-0.306378
-0.075127
-0.175144
0.330222
0.175246
-0.116076
0.541698
0.396753
-0.031528
0.906128
0.0301857
0.0698017
0.458889
-0.58965
0.363281
-0.052125
-0.126638
-0.283589
0.62002
0.100058
0.322797
0.317543
0.582233
0.841778
-0.127317
0.145458
0.73403
0.715134
0.152397
-0.45315
0.546041
0.101963
0.240792
0.0943024
-0.320725
-0.0433988
-0.667558
0.243264
-0.176305
0.126413
-0.0173121
0.465108
0.728233
-0.11774
0.474463
-0.787378
0.620067
0.0209675
0.56398
0.483786
0.0763091
0.18747
0.669382
-0.79526
0.46545
-0.2978
-0.103576
-0.163241
0.382815
-1.05802
0.377656
-0.0282614
-0.145944
-0.301795
0.810842
-0.466763
-0.207196
0.570127
0.127516
-0.64425
0.564331
0.543513
0.150513
-0.00389703
0.183812
0.418755
0.486243
0.11864
0.858277
0.669563
0.0317821
0.419244
0.310633
0.367193
0.797009
0.788099
0.238145
1.01317
0.796268
0.157053
0.813121
-0.171884
0.636335
0.406081
-0.0136589
0.625453
0.282867
-0.00946774
-0.165568
0.123324
0.859671
0.366269
0.461288
0.217191
0.776758
0.291952
0.943995
0.105302
0.738619
-0.325919
-0.135458
0.73316
0.681016
-0.112215
0.648607
0.00995913
0.0610541
0.115328
0.124703
0.655847
0.848251
0.78482
0.923584
0.729772
0.424331
0.79441
0.245496
0.148548
0.462303
0.231473
0.87131
0.249406
-0.0642573
0.916906
0.463222
0.611573
0.739685
0.306482
0.52203
0.898082
0.681294
0.0999547
0.756224
0.175092
0.221698
0.365464
0.699972
0.585655
0.0456087
-0.0973384
0.924262
-0.0199358
0.223675
-0.395103
0.0683299
-0.0959923
-0.388504
0.239219
0.626588
-0.344555
0.159903
0.325151
-0.19505
0.186317
-0.0704845
-0.436004
0.0542299
-0.828886
-0.155909
0.397512
0.307706
0.444543
-0.18231
-0.485343
0.549589
0.188226
0.252186
0.21811
0.311054
0.110585
0.0885627
-0.146791
0.378644
0.0568536
-0.16162
-0.193415
0.301941
0.21794
0.612038
-0.562552
0.0364397
0.324581
-0.701361
0.26699
-0.273255
-1.15354
-0.958188
0.385074
-0.493931
0.0316158
-0.17721
-0.271078
-0.102993
0.225777
0.670594
-1.00643
-0.190953
-0.94729
-0.371741
0.106303
-0.693878
-0.195235
1.31065
-1.13646
0.377419
-0.335116
-0.311383
-0.304257
0.037181
-1.05028
-0.245209
0.540787
-0.0308888
0.115216
0.239241
-0.373473
0.386192
-0.260472
-0.745844
-1.24166
0.396313
0.386151
0.964446
0.993866
0.889798
0.918882
0.172582
0.413251
0.111179
0.98178
0.304483
0.550188
0.620228
0.14243
0.417432
0.451796
0.11771
0.271432
0.480392
0.969695
0.273995
0.182531
0.0779443
0.77221
0.316874
0.993591
0.952757
0.843196
0.160619
0.864559
0.416364
0.373089
0.357341
0.268563
0.16129
0.449141
0.651753
0.452467
0.504013
0.450453
-0.373474
-0.582363
-0.0176786
-0.133479
0.00763258
1.12735
-0.244558
-0.63008
0.0467789
0.492743
0.388437
-0.396755
-0.151204
0.526057
-0.966103
-0.459264
-0.715955
0.54177
-0.162668
0.101471
-0.403991
-0.380505
-0.558971
0.310711
-0.269467
-0.500961
0.0455235
-0.55469
-0.327945
0.56215
0.201818
-0.126397
0.333145
0.0732207
-0.588949
0.939427
-0.164463
-0.00366261
0.162497
-0.010046
0.286279
-1.0095
0.557744
0.405846
0.374083
1.29938
0.418071
0.0595873
-0.401366
0.723054
0.148644
0.0511862
-0.185561
0.359371
0.343641
0.654388
-0.0896878
1.22377
0.149591
0.319078
-0.657472
0.447123
-0.322209
0.206236
0.152585
-0.688569
0.370112
-0.54303
-0.756767
0.176487
-0.0467692
-0.141955
-0.325697
-0.121228
-0.18837
0.720962
-0.438387
0.305474
0.0142782
0.0895327
-0.0657754
0.425208
0.104195
0.490452
0.0413467
0.557748
-0.0394996
-0.00316666
0.645719
0.292086
0.703431
0.324063
0.281252
0.0287111
0.400609
-0.0596376
0.54661
0.575437
0.753676
0.419432
0.472365
0.794984
0.32437
0.122924
0.438219
0.275284
0.285925
0.724864
-0.187361
0.839168
0.0552612
0.225421
0.279764
0.298825
0.231148
0.914851
0.32764
0.376143
0.794044
0.449916
0.517421
-0.0857144
-0.173439
0.306035
0.641418
0.710794
-0.145249
0.498174
-0.132306
0.495082
0.646949
0.0899766
0.322748
0.575329
0.610833
0.737249
0.269853
0.933409
-0.0432522
0.829492
0.0304425
0.339641
0.564138
0.205554
0.330153
0.621378
0.330476
0.0349211
-0.422874
0.981909
0.397164
0.899397
0.401238
-0.295693
0.160907
0.221388
0.16451
0.74787
0.512177
-0.115488
0.1568
-0.855979
-0.00175484
-0.0395633
0.77484
-0.528823
0.111975
0.33112
0.0724817
-0.0322668
0.490769
0.0567074
-0.345776
0.146469
-0.480791
0.432203
-0.297641
-0.162056
0.60319
-0.487411
-0.27152
-0.241209
-0.099193
-0.214043
0.683067
-0.745747
0.686727
0.276111
0.66837
-0.0543528
0.54216
0.131671
0.0200322
-0.477581
-0.537218
0.313579
0.329202
0.0676839
0.519853
-0.1669
1.0338
0.596013
0.367519
0.164403
0.845923
0.0036984
0.499888
0.7628
0.486634
-0.312049
0.288642
0.323161
0.341765
0.038055
0.561748
0.119169
0.503129
-0.0697497
-0.157716
0.571103
0.637223
-0.093474
0.845686
0.210405
1.00381
0.82825
-0.390001
0.635823
0.573082
-0.421964
1.19217
0.872994
0.798662
1.31658
0.922105
-0.529177
1.02383
0.986262
0.104154
0.537947
0.19826
1.4748
-0.347394
-0.53405
-0.188047
-0.458057
-0.992609
-0.0305822
1.09994
0.222016
-0.0538592
0.866834
0.933263
-0.194402
1.38119
0.0370721
0.761813
0.0946415
0.0714698
0.655625
1.73229
0.0110813
0.791765
0.190455
-0.087475
1.59319
-0.883916
1.05244
0.764149
-0.351561
1.05177
1.07514
1.1928
1.33465
0.737587
-0.175758
1.51917
0.945614
0.876229
-0.272744
-0.0790001
-0.607472
0.515449
0.244697
0.237414
0.962917
0.0331958
0.113862
-0.243519
-0.0350602
0.623846
0.223471
0.138208
-0.0681698
-0.667366
0.195899
-0.318191
0.716997
-0.00398626
-0.0913118
0.0215792
-0.296165
-0.806077
0.246452
0.0321788
0.128617
0.625188
-0.100401
-0.500427
0.83152
0.0943439
0.416413
0.261138
-0.351648
-0.143133
1.03861
-0.110323
0.262701
0.207232
0.164179
0.206628
-0.653572
0.388182
-0.233251
0.539522
0.16833
-0.138414
0.188743
0.0653404
0.595562
0.706102
0.571148
-0.17719
0.211338
-0.106409
-0.0960529
-0.653979
0.587096
0.307659
0.0249311
-0.0315226
-0.163571
-0.544954
0.476912
0.00552887
-0.0257514
0.51004
0.268745
0.695149
-0.156577
-0.482347
0.364367
0.303802
-0.741583
-0.473458
0.630532
0.125296
0.322893
0.179412
-0.447762
-0.113542
-0.516881
0.633372
0.515922
-0.324439
0.780358
0.67979
-0.201841
-0.263269
-0.0943831
0.309309
0.297194
-0.230163
0.626275
0.340236
-0.177227
-0.546395
0.465714
0.300469
0.672393
-0.324124
0.22121
-0.252052
0.740783
0.485725
-0.247042
0.251638
0.471605
-0.21702
0.194377
0.324862
0.591145
-0.0284406
0.0518344
0.148196
0.785125
0.60473
-0.149513
0.678003
0.263121
0.51379
0.636128
-0.415488
0.785467
0.163465
-0.356255
-0.0239033
0.0613017
0.555137
0.248353
0.319704
0.397016
0.831374
0.564543
0.566866
0.3212
0.14134
0.502418
0.570588
-0.0284377
0.209659
-0.0495272
0.641742
0.0755263
0.417128
0.0435125
0.149643
0.373088
0.198835
-0.146613
0.366253
0.0537554
0.561339
0.726054
-0.0376247
0.0343378
0.149163
0.164214
-0.170498
0.0529732
0.591009
-0.00133117
0.473306
-0.162274
-0.00466857
0.94641
-0.242351
0.391156
0.150745
0.990035
0.335527
0.507471
0.69263
0.298612
0.192861
-0.222279
-0.461806
0.071905
0.427231
0.731467
0.227011
0.603696
-0.204178
0.493225
0.362066
0.454338
0.698278
-0.227375
-0.433346
0.739861
0.107589
0.198464
0.238641
0.16917
0.646039
0.149063
0.219569
0.685789
0.37958
-0.339387
0.728193
0.25937
0.571969
0.457034
0.0885334
0.679917
0.504451
0.479474
0.245188
0.346845
0.122132
0.273305
0.709696
0.127823
0.580087
0.751614
0.519329
0.585489
0.845855
0.717254
0.14222
0.511197
0.108773
-0.0785128
0.198747
0.0124169
0.588132
0.713989
0.464912
0.606071
-0.130864
0.397694
0.257677
-0.159178
0.063074
0.288661
-0.00685169
0.453234
0.372323
0.0661161
-0.243589
0.295627
-0.447382
-0.496453
0.00155747
-0.0184048
-0.309779
0.700104
0.632985
0.00158342
0.710889
0.157361
0.318334
0.0703437
1.05435
-0.0462769
0.122333
0.312317
0.572919
0.485189
0.696775
-0.248693
1.07117
0.0927904
0.329942
0.705682
0.566453
0.419921
0.222058
0.216948
0.851283
0.78245
0.614146
0.580531
0.866118
0.179644
0.114463
0.399898
0.405447
-0.18058
0.391373
0.368577
-0.223984
-0.0653335
0.0124374
0.163701
0.00596021
-0.0341984
0.574771
0.590464
0.0294019
-0.11529
0.65453
-0.0429246
-0.159009
0.0266296
-0.177382
0.551653
0.615369
0.321061
0.723091
-0.0576105
-0.0356876
0.245769
-0.0319466
-0.3023
0.359807
0.611231
-0.18723
0.954936
-0.301586
0.695365
0.747144
0.496236
-0.175146
0.264406
0.0981191
0.805311
0.504607
-0.141387
-0.164625
-0.395923
-0.289656
0.531333
-0.434678
0.804208
-0.0347805
0.398838
-0.162722
0.101534
0.620317
-0.389798
0.475243
-0.210497
-0.402441
0.440201
-0.264465
0.959997
0.236887
-0.205214
-0.203307
0.252005
0.275492
0.0700994
-0.201225
0.0947539
0.69364
0.262527
-0.692076
-0.0111987
0.227985
0.00132
-0.00982854
-0.354935
-0.408892
0.430864
-0.544282
-0.322606
0.0418661
0.0772944
-0.00696238
0.391104
0.00447601
0.391091
-0.142101
0.521045
0.422577
0.210642
0.398359
0.932578
0.704953
0.617482
0.735367
0.342452
0.0806124
0.807836
0.0296253
0.927566
0.202713
0.0637446
0.5626
0.68383
0.267693
0.63256
0.227307
0.848116
0.745415
0.494079
-0.166787
-0.114476
0.274977
0.849318
0.365243
0.586593
0.345667
0.543943
0.764134
0.696682
0.234462
0.592235
-0.00693718
0.48739
0.810864
0.339176
0.169109
1.08643
0.289435
0.765207
-0.110716
0.806929
0.960552
0.396581
0.840757
0.443273
0.0508513
0.928713
0.489256
0.0724543
0.898377
0.068622
0.391609
0.479019
0.498218
0.788307
0.707796
0.595888
0.247465
0.715002
0.714695
0.481703
0.155828
0.41488
0.647763
0.651905
0.406145
0.853023
-0.0276864
0.380723
0.688067
0.850093
0.304422
0.308267
0.911069
0.0579852
0.856502
0.928098
0.256844
0.305399
0.558611
0.591998
0.643635
0.941008
0.469131
0.793451
0.0858486
0.937498
0.121372
0.0774865
0.0131535
0.311136
0.0510575
0.583605
0.267617
0.255104
0.0210883
0.496231
0.376171
0.446699
0.724693
0.0602741
0.13007
0.434584
0.248573
0.317026
0.00183111
0.51268
0.0768151
0.216865
0.431532
0.986206
0.917356
0.265694
0.513443
0.236793
0.131474
0.360302
0.114414
0.492691
0.0487381
0.969604
0.954924
0.710105
0.947417
0.318064
0.684378
0.472427
0.982238
0.727042
0.481979
0.312876
0.840876
0.770501
0.213965
0.367748
0.410199
0.401837
0.678823
0.765404
0.233192
0.707419
0.97177
0.658284
0.0385144
0.443068
0.499344
0.303568
0.123417
0.0104984
0.676077
0.0990326
0.871487
0.0292062
0.833552
0.97998
0.186132
0.160161
0.374004
0.0839259
0.121921
0.338023
0.699087
0.0893582
0.493851
0.067568
0.945311
0.133946
0.746574
0.940947
0.0574969
0.719687
0.864895
0.0317087
0.231269
0.510361
0.606006
0.32252
0.255806
0.427717
0.835902
0.821497
0.788598
0.953124
0.249916
0.525132
0.0926847
0.0398877
0.259651
0.882595
0.26841
0.544084
0.591005
1.89393
0.0969235
0.352615
0.385458
-0.711206
-0.362245
0.796495
1.0216
-0.390943
0.415538
0.518316
0.778179
-0.103271
1.37637
-0.327687
1.29797
0.103083
-0.353892
1.11497
1.37958
-0.241256
1.43356
-0.138257
0.57596
1.54627
0.111436
1.16611
1.21347
-0.287943
1.03588
1.11902
1.09707
1.53745
0.523543
-0.512384
1.2485
0.977685
0.817352
-0.017733
0.0987631
-0.0640016
0.153157
-0.0443772
-0.348992
0.614983
-0.433818
-0.610264
0.457927
0.74902
0.954984
-0.518628
0.0761674
0.281852
-0.288835
0.480569
-0.435689
0.719166
0.609133
0.175032
-0.0817985
0.0950105
-0.707408
0.444692
-0.190953
-0.4607
-0.321284
-0.578368
-0.230811
0.0544594
0.219746
0.508416
0.331842
0.324407
-0.20125
0.516143
0.302221
0.11508
-0.0378578
-0.561188
1.14202
0.143393
0.774439
0.541468
0.708334
0.130016
1.11507
1.16546
-0.0513272
-0.659113
0.281748
0.439291
-0.77869
0.291935
0.130688
0.363511
0.0195972
-0.551421
0.589434
0.238281
-0.0159454
0.824661
0.273387
0.327489
0.163142
-0.214703
0.638522
0.143114
0.970646
-0.338435
-0.57855
-0.3606
-0.652439
-0.249588
-0.303505
0.367891
-0.213629
-0.342473
0.0385258
-0.091464
0.970645
0.284089
0.833089
0.543316
0.261915
0.448022
-0.196913
0.874341
0.466832
-0.734993
0.0149837
0.787065
-0.452761
0.241659
-0.327098
0.39152
0.722112
-0.541656
0.534112
0.256683
-0.137377
0.871815
0.311999
-0.577187
0.648882
0.352976
-0.0653396
-0.30834
0.952006
-0.255992
-0.129579
-0.384257
-0.602969
0.249493
0.403493
0.416838
0.593094
0.104461
0.00621527
-0.0110533
0.818232
0.666463
0.305551
0.963378
0.385266
0.0718711
0.240455
0.292978
0.229621
0.330027
0.219275
0.715903
0.0253609
0.321543
0.391583
0.908933
0.865658
0.896542
0.318918
0.351787
0.317331
0.835017
0.718192
0.22248
0.360912
0.153386
0.167821
0.403516
0.995758
0.412488
0.807978
0.506027
0.793115
0.184118
0.566362
0.317728
0.177526
0.331889
0.94055
0.580798
0.620074
-0.555633
0.84481
0.350982
0.00566761
0.790245
0.68382
0.865779
0.534165
0.517076
0.716761
0.305598
-0.317411
0.472175
-0.320501
0.762567
-0.226563
0.47444
0.72012
-0.174718
0.123953
0.470016
-0.347683
-0.0263677
0.293294
-0.199474
0.0292779
0.363219
0.662679
0.479916
0.102058
-0.181017
0.101583
0.182282
0.308668
0.376291
0.60369
-0.103911
-0.0397446
0.327205
-0.023844
-0.0362783
-0.368463
-0.643992
0.564607
-0.0310834
0.185433
0.339168
0.327211
0.274108
-0.00510239
-0.344539
-0.409389
0.979473
-0.534169
0.665485
0.348286
1.14708
0.571987
0.153707
0.507909
-0.129604
-0.0191212
-0.0518433
0.26011
0.123685
0.782271
-0.234518
-0.207582
0.75709
0.2114
0.0979314
0.491941
-0.259415
0.246707
0.598433
0.544827
-0.259005
0.280528
-0.156701
0.519269
0.0879699
0.376475
-0.282229
-0.0906078
0.534542
0.412394
0.417626
0.114779
0.424659
-0.724232
0.729834
0.88415
0.100125
-0.183982
0.0187149
0.706996
-0.587959
-0.752251
0.687913
1.04701
0.157155
1.21004
-0.0221205
0.37714
0.840264
0.372255
-0.424638
0.0526411
0.716504
0.403501
-0.190596
-0.255949
-0.608587
0.500789
0.431587
0.130349
0.371008
0.0254651
0.566574
-0.0883178
-0.539113
0.195377
0.330957
-0.0862152
0.480019
0.533925
0.793892
0.186068
-0.278902
-0.297694
0.137392
0.537407
0.698846
-0.700871
0.280561
0.21339
-0.476458
-0.200648
0.277269
-0.554186
-0.0413605
0.65918
0.230761
0.221062
0.457353
0.683676
-0.410834
-0.372181
0.222554
-0.0120824
-0.126665
-0.271922
0.236776
0.409745
0.430773
0.395102
0.1423
0.320299
0.150193
-0.73106
0.406977
-0.110294
0.72403
-0.132383
0.975035
0.0502628
0.551098
0.0557484
-0.311758
-0.278865
-0.0363218
0.578896
-0.220961
0.617452
0.0305135
-0.0887181
0.391441
-0.325733
0.436726
-0.19873
-0.435069
-0.207972
0.733121
-0.209017
0.33736
-0.426476
0.729676
0.769883
0.394272
0.258294
0.447026
0.904223
-0.185992
0.308315
0.775002
-0.0409059
0.156767
-0.0336098
0.483225
-0.103623
0.0130362
-0.117178
0.350262
0.535937
0.113889
0.574919
1.14886
0.664191
0.541675
-0.736564
0.5942
0.637764
0.8337
-0.222518
0.175444
0.521682
-0.0663153
-0.843321
-0.11281
-0.607705
0.467174
0.00803582
-0.529884
0.272806
0.108836
0.36002
-0.314538
-0.0195591
0.162623
-0.392752
-0.00661342
-0.236983
0.570857
0.0430944
0.799492
0.0520807
0.632861
-0.213894
0.180868
-0.0752901
-0.485337
0.459281
0.86406
0.08868
0.452334
-0.322798
1.10298
0.528305
-0.190555
-0.101082
0.170337
0.126585
-0.14354
0.415358
0.0169304
0.672165
-0.0750584
0.111715
0.0399119
-0.315481
-0.379045
-0.669244
0.505844
0.638957
0.283762
-0.0371521
0.605249
0.845362
0.173805
0.350723
0.46288
1.0415
0.875808
-0.504076
0.36628
0.259967
0.0366843
-0.518684
0.39525
-0.145213
-0.283571
-0.234425
-0.0873981
0.651033
0.00971104
-0.0547671
0.304787
0.464854
-0.0897324
-0.3003
-0.0193528
-0.371755
0.421248
-0.0962742
0.718875
-0.330087
1.23388
0.785395
-0.307631
0.243599
0.572482
0.458167
0.0367156
-0.0970729
-0.00927057
0.42538
-0.0505927
-0.274526
0.522885
0.191734
-0.288825
0.447129
0.39001
0.440931
0.598773
-0.131353
0.742572
-0.0443635
-0.208407
-0.0126299
-0.795145
-0.525568
-0.327455
0.939826
0.158087
0.284593
0.577188
0.593693
0.0981044
0.367425
0.0243947
1.03038
0.77872
-0.551858
0.558069
0.702227
-0.202005
-0.701228
-0.299134
-0.808676
-0.411922
0.344805
0.512767
-0.177407
0.0929347
-0.0261681
0.539689
0.70688
0.485279
-0.643311
-0.297006
-0.106689
0.159317
-0.233578
0.89427
-0.0888
0.344967
0.184638
-0.0161924
-0.680891
-0.0887978
0.0702426
0.917504
-0.187445
0.325741
0.176713
0.319897
0.107646
-0.025664
-0.511334
-0.745021
0.0457886
0.55194
0.289416
0.410772
0.348031
0.71313
0.376491
0.0295948
-0.365318
-0.305617
-0.0986821
0.0294554
-0.253887
0.296843
0.249818
0.69366
0.665368
0.18836
-0.471431
0.777355
0.321956
-0.162371
-0.354446
-0.0553349
0.206107
-0.488848
-0.394482
0.500461
-0.640895
-0.605952
0.127305
0.324273
0.133617
0.877958
0.189168
1.24146
0.0593269
0.222267
-0.695461
0.0387079
-0.116507
0.199472
-0.450901
0.12451
0.381813
0.362766
0.523433
-0.0434163
-0.121686
-0.0770549
0.524067
0.0317006
-0.271906
0.900323
0.0430529
0.656489
-0.10983
0.218706
1.02191
0.716786
1.02887
0.854746
0.0798661
0.329908
0.145352
0.334771
0.607378
0.671817
0.467299
0.285073
0.861751
-0.221592
0.566522
0.361298
-0.38863
0.667907
0.200622
0.467573
0.656936
-0.820191
0.375042
-0.849554
0.804939
0.0737344
-0.220309
-0.240541
-0.211412
-0.420418
0.347266
0.521557
-0.233406
-0.523458
0.454927
-0.0616777
0.0283601
-0.00558481
-0.313617
0.254562
