3.17386
-2.11741
1.6742
0.363056
1.40092
1.19785
2.57047
-1.20332
0.0906976
-1.08243
1.66219
-3.69025
-3.54863
1.56201
-1.8899
-1.96846
-0.568247
1.44686
3.29145
-3.33181
1.25138
-1.70316
5.57544
3.28368
1.16431
-3.76436
-1.12099
-3.28508
-0.125404
0.156167
-1.86886
1.21665
-1.32998
-3.16149
-1.33835
-0.545737
1.80925
0.480418
1.50986
3.22557
3.22255
-2.04168
1.44045
2.31075
2.65867
0.358049
1.91389
1.36088
1.74251
-1.17977
1.08918
0.438969
1.00873
-1.41268
1.36811
4.23812
2.78871
1.26379
2.15782
0.123169
0.920978
3.52443
1.3306
0.766856
-2.16111
1.29769
1.21983
-1.32703
2.02344
-1.69092
-1.11425
-2.37344
1.72561
3.32492
1.0751
1.72576
1.497
1.30256
1.3111
1.2468
0.122426
-0.0448071
0.277303
-0.0417327
-0.292569
0.801726
0.700737
0.011675
0.160824
0.0594419
0.956763
-0.676189
-0.321023
0.855532
-0.692514
-0.501322
0.0583186
0.612981
0.345675
0.0591464
0.265706
-0.718307
1.02747
0.710621
0.916084
-0.875794
-0.339617
0.206609
-0.159435
1.18727
0.117019
1.00782
-0.989915
-0.196207
0.0370579
0.531841
0.273374
-0.265669
0.462289
1.29159
-0.701233
-1.01348
-1.13842
-0.925627
-0.474984
-1.5326
0.0651022
-0.38967
-0.875919
-0.395571
-0.853598
3.13118
2.86233
-2.71908
1.06817
-1.25709
-0.692599
0.0898939
-0.32012
1.22506
-0.500006
-1.04247
-2.48171
-2.3056
-2.66864
2.98551
0.770681
-0.0788386
1.27129
-0.562521
-0.581898
-1.69052
1.32804
2.87706
0.836901
0.362392
0.90804
0.479765
-0.580443
-1.84596
0.983734
0.373577
0.929472
0.287942
0.0262459
0.193548
0.573778
0.200415
0.277963
0.89526
0.827021
0.180273
0.676412
0.0158086
0.52739
0.863643
0.36079
0.49559
0.280221
0.655721
0.951842
0.463301
0.227058
0.0484939
0.724052
0.34373
0.847957
0.838588
0.0772729
0.0687582
0.453383
0.276589
0.21305
0.673055
0.521714
0.679922
0.422193
0.0560015
0.538774
0.538896
0.890225
0.190985
0.495407
0.649037
0.426405
0.562609
0.699667
0.299539
0.0230415
0.114475
0.0596026
0.0497757
0.65096
0.487411
0.493271
0.124943
0.197577
0.830073
0.621357
0.962065
0.953917
0.963256
0.399915
0.93759
0.556566
0.178838
0.848415
0.8081
0.791101
0.454726
0.529862
0.894894
0.162847
0.366955
0.939055
0.544023
0.641865
0.480667
0.455428
0.893185
0.487564
0.500443
0.0163884
0.476119
0.559984
0.961943
0.167974
0.696585
0.0234687
0.745567
0.648122
0.702322
0.84933
0.193976
0.160039
0.69097
0.0232551
0.113926
0.490799
0.178594
0.86462
0.444594
0.632191
0.262764
0.362682
0.872677
0.0595416
0.410382
0.937284
0.176458
0.82522
0.802942
0.529008
0.579455
0.622547
0.768914
0.426222
0.894925
0.477035
0.335887
0.734275
0.742882
0.220527
0.432661
0.893643
0.620533
0.40492
0.773309
0.153417
0.107425
0.811457
0.953856
0.405683
0.986816
0.212226
0.793176
0.28779
0.563799
0.53975
0.449599
0.958373
0.962767
0.120762
0.343577
0.453261
0.683798
0.131138
0.418683
0.0281991
0.20069
0.927549
0.77163
0.393567
0.880825
0.412061
0.182623
0.248238
0.00878933
0.0869167
0.577471
0.0185553
0.194769
0.954161
0.95233
0.208533
0.94879
0.917722
0.793023
0.267556
0.702322
0.843776
0.519272
0.382122
0.058504
0.935148
0.986023
0.0975066
0.552019
0.576708
0.57213
0.175787
0.69982
0.307749
0.888852
0.596454
0.6245
0.0774255
0.63802
0.105777
0.0308847
0.439711
0.652486
0.221534
0.817591
0.843959
0.648976
0.0986053
0.104221
0.677602
0.725394
2.41127
-0.855704
1.18207
1.21774
2.96004
0.969787
1.5486
0.609948
1.60775
-0.0753326
1.50589
1.04127
2.86373
-0.756478
0.868394
3.20084
1.85353
1.57917
2.34478
1.68111
1.22642
2.84353
2.17737
1.24272
-1.18605
2.76909
0.663157
-1.03278
2.01544
-1.42178
-0.333001
-1.19014
1.8596
3.2008
1.41181
0.732893
1.79122
1.50545
1.31991
1.3025
0.419744
-0.0960411
-1.56223
-0.323349
1.18004
-1.62649
0.860201
0.0482545
0.204372
0.376256
-0.0696392
4.24991
4.26564
-1.85486
1.89374
1.91528
0.263154
-0.0771748
0.497924
3.67973
-0.0317758
1.65186
-2.80092
-2.57638
-1.63682
5.03301
0.949857
0.728663
1.20406
0.0157582
0.0209419
-1.37557
2.92325
4.93127
0.513362
0.455226
0.781671
1.1986
-0.828764
-1.1051
-0.336508
1.06532
-0.118198
0.341024
-2.53798
0.315389
-0.100335
-0.27838
-0.18527
0.420513
0.589714
-0.989332
-2.33248
0.320653
-0.5663
-3.92593
0.167281
-0.134598
0.601076
-3.16191
0.502303
-2.64627
-0.163071
0.543308
1.08325
-0.864716
0.136204
0.0245411
-0.136716
0.644197
0.800217
0.78532
-0.730489
-1.14738
0.335143
-0.319206
0.251203
-0.12884
0.00517839
-0.00913061
0.790677
-0.126928
1.8703
0.45444
-0.00601176
1.57298
0.87069
-0.738648
0.415526
0.279368
1.05475
-2.51521
-2.32151
1.37959
-0.984869
-1.17942
0.5152
0.298337
1.20684
-1.6056
0.787779
-1.05934
1.97096
1.63899
1.46392
-2.59998
-0.723339
-0.536653
-0.00273627
0.444425
-0.351066
0.792194
-1.0977
-1.42293
-0.398602
-0.58093
0.507677
-0.620554
1.07094
1.8582
0.10426
1.55018
-1.54491
0.264995
-0.1557
-1.05521
-0.387564
0.97292
0.33019
0.401438
0.20168
4.46922
3.42892
-2.55656
2.48494
0.790658
0.292175
-0.0646618
-0.402898
3.05545
-0.060147
0.287525
-0.715178
-1.02195
-2.14091
3.3813
0.746523
1.38486
0.714717
0.593846
1.08086
-0.0517164
1.74995
2.17143
1.1011
0.755153
0.501317
0.197206
-0.399655
-0.418786
1.0128
-1.41597
-0.456496
0.166803
1.01164
-0.596434
0.813502
0.0541796
0.360489
-0.930656
0.744437
3.18962
3.84141
-1.50534
1.14942
1.72352
0.0152162
0.0813433
0.951244
3.08408
-0.101991
1.63494
-1.74791
-1.8989
-2.34657
3.82598
0.887705
0.0830986
1.41383
-1.38601
-1.11665
-1.73128
2.09865
4.77403
0.510301
-0.213473
0.81722
0.702739
-0.465592
-0.85715
0.49556
0.252876
0.839839
0.533128
0.498733
0.742332
0.259621
0.455031
0.651906
0.137455
0.676412
0.900266
0.723777
0.216681
0.00146489
0.894955
0.855251
0.399579
0.949248
0.876705
0.491653
0.575304
0.677084
0.398968
0.395123
0.690298
0.146702
0.673055
0.143223
0.877682
0.861812
0.979339
0.0201727
0.408277
0.139195
0.479019
0.706961
0.245491
0.569597
0.45735
-0.680185
-0.679502
2.39452
-0.159646
-0.189162
1.20143
1.6716
-1.59578
-0.785684
2.58762
2.10971
-4.89359
-4.66763
3.31353
-2.38182
-4.94903
-1.04849
-0.27892
1.19284
-4.62466
0.125565
-4.40846
3.54177
2.63433
3.12182
-5.38255
-0.941056
-0.0555057
-0.759896
3.29086
0.686255
4.92421
-2.79349
-6.45662
-0.736513
-0.388708
1.75565
-0.86413
1.42235
3.03053
-0.0624479
2.73082
-0.0611941
-1.98479
-1.74382
0.811432
-0.598497
-0.549258
0.130609
0.674113
0.536369
-0.0710835
-1.49703
3.74201
-1.32288
-4.504
-3.2749
-0.309385
-0.559865
-0.565823
-0.212617
-3.93634
-0.482475
0.0158629
3.74757
-0.848443
-1.06651
1.47988
-1.587
1.18834
1.84676
3.22744
-0.57515
-2.35834
-1.11434
-1.16019
0.00290423
-0.0779373
0.365179
0.636193
1.88288
-0.652081
1.52664
1.05854
0.202719
0.482318
0.62531
-0.212061
-0.191301
-0.363594
0.356725
-0.971694
-2.28699
0.552673
0.32523
-0.100323
1.1106
0.461098
1.43378
-2.68564
0.703339
0.176199
0.750846
0.597
0.020632
-0.649955
-0.08811
-0.822001
0.304169
-0.85431
-0.670926
-0.845168
0.119561
-0.243221
-0.420041
0.403697
0.101098
0.383709
0.720696
0.743693
-0.118928
1.26221
1.15717
-0.383891
-1.57568
0.880867
0.299416
0.46695
-0.0255866
1.97513
0.544159
0.381584
-0.818839
2.03694
-0.736041
-1.40171
-0.722453
-0.259911
0.950415
0.950449
-0.0538402
-1.64534
0.97994
0.232505
3.68773
-0.33982
0.530443
0.812075
-0.368372
2.78227
0.654576
3.61041
-1.27845
-0.00691206
-0.222304
0.246642
-0.390618
-1.22437
0.887271
1.96327
-2.2108
3.39143
-2.17841
-1.37501
-1.66349
-0.373462
-0.848309
-0.0845833
-1.15282
1.66401
-0.610959
2.45861
2.26517
-2.91351
0.426248
-1.42372
-1.62705
-0.403145
-1.36775
2.63224
-1.26092
-1.27292
-1.95171
-0.871906
-0.22279
2.34497
0.914961
0.68648
0.412316
2.00044
0.467319
2.92247
-0.547022
1.84952
0.127887
-0.272944
0.724468
-0.684104
-0.743532
-0.834343
2.55155
-1.988
1.15397
1.88228
3.29579
-0.229902
1.60876
1.45057
1.41126
-0.595578
0.570377
3.23383
3.60383
-2.18418
1.74956
5.32157
3.06581
0.74231
2.05726
2.06052
1.11588
4.96548
0.974715
0.831824
-3.11042
3.3283
1.61048
-0.284561
2.54905
-2.02
-0.627925
-4.0046
2.40201
5.38556
2.23898
2.05575
2.04264
1.6913
1.04738
1.0177
7.32149
-4.05331
3.26058
4.85347
5.27087
1.30406
3.63595
1.67869
2.67764
-1.40486
2.47126
-0.577304
1.6525
-1.57836
1.2961
6.56873
5.24199
2.04283
5.64859
0.731276
3.42867
5.79368
5.7522
3.01022
-3.76192
0.619723
1.6548
-3.62931
2.704
-4.4623
-1.948
-2.6651
2.02026
4.71199
2.6238
2.19086
2.3681
2.0721
3.07681
4.80036
1.83504
-1.23284
0.877842
0.86502
-0.637651
0.806347
0.676976
-0.578812
-0.087168
0.145313
1.42263
-1.5006
-2.04717
1.11445
0.180185
-1.29146
0.614662
0.316833
0.458325
-1.20667
0.88245
-1.09297
1.39324
1.18494
0.422227
-1.64215
0.120945
0.249028
0.0671376
0.104896
-0.246366
0.988083
-0.924019
-0.82993
-0.0575431
0.417529
1.04792
-0.562414
0.560203
1.24196
-2.36043
1.99156
-0.73362
-1.33377
-2.45121
-0.410105
-0.343378
-0.275342
-0.834588
1.47114
0.225592
0.883381
0.629889
0.12363
0.0931819
-2.75768
-1.53822
-0.789553
-1.34045
0.999381
-0.781981
-1.97686
-1.01254
-0.713746
1.65836
0.0952964
-0.582849
0.911234
-0.296051
2.14506
1.17793
2.20605
-0.375941
-1.06025
-0.648016
-0.740819
0.430411
-0.837361
-0.67107
-1.01755
1.37416
1.88707
0.392319
-1.2192
-0.175889
1.69566
0.910572
-1.23472
-1.00237
1.53568
1.74749
-2.52969
-3.09636
2.11624
-0.217914
-2.8707
-2.48177
0.721501
1.83415
-2.14415
0.881204
-2.55711
1.46834
2.15338
0.910564
-2.90689
0.533537
1.02791
-0.583715
1.15475
2.02755
1.31168
-1.57626
-4.03817
-1.63259
-1.09297
0.0611349
-0.57725
1.01756
1.88392
2.15283
0.849299
0.897262
0.425303
0.970564
0.355833
0.950133
-0.517357
-0.307804
1.33727
0.831231
-0.90112
-1.15655
0.20883
-0.392807
-1.07084
0.110582
1.10291
1.88412
-0.789301
0.742808
-1.0696
-0.200669
-0.564107
2.93573
-0.974448
0.248122
-1.22652
0.856118
1.1079
0.125381
1.15431
-0.399888
0.0946419
-0.724392
0.102598
1.42882
0.6849
0.424927
0.19338
2.55393
-2.54348
1.71348
1.62393
0.902191
0.103379
1.44666
1.3605
1.30043
-1.19274
0.618504
-0.0317306
-0.288541
0.56584
0.479819
1.69032
3.12509
0.364533
2.05101
-0.866751
0.35878
0.622935
1.4632
-0.29544
-0.898348
0.131316
0.800751
-1.92388
0.865873
-0.468874
-1.17701
-1.17284
0.376931
1.81551
1.36135
1.02795
1.5804
0.819558
1.19942
1.72787
-1.27317
1.26978
-2.26037
-0.443465
-1.60621
-1.5919
-0.333683
0.29509
-0.920636
1.11406
-0.027936
2.26427
2.30287
-0.985221
0.307881
0.589306
-0.482514
0.131561
-0.372955
1.60791
-0.533108
0.299631
-2.43964
-2.51786
0.668668
1.74743
0.912281
1.96846
0.112599
0.925699
0.771278
0.534386
0.98481
0.863857
0.756364
0.156006
0.808815
0.213532
-1.64802
-2.84108
2.83069
0.17399
4.21405
1.67747
2.60821
1.619
1.58382
0.628111
1.77799
-0.205805
1.46426
0.537703
1.47028
1.04888
-0.0471673
1.78848
2.25247
0.45649
2.19322
0.241518
1.61248
1.19815
2.02633
3.5014
-0.262497
1.42729
0.245641
-0.818554
-0.151832
1.23593
-0.26429
0.581225
1.70696
1.1854
0.38853
0.925175
0.0314422
1.38542
2.33597
4.10094
1.92049
0.0461234
1.94852
0.9274
0.747528
1.51769
1.3641
-0.394983
0.231849
0.992845
1.57105
0.218666
-0.483936
2.72369
0.589936
0.522099
0.952009
0.398214
1.87329
-0.703779
1.13483
0.574941
2.45069
1.60809
1.91073
-0.557903
-0.393514
0.240175
0.652567
1.34739
0.414651
1.91746
-0.0293763
-1.30972
-0.420402
0.731708
1.52482
0.807116
1.25047
2.06506
-1.91752
3.60968
-0.181504
-2.14237
-2.34231
1.25967
-0.0510394
-0.773792
-1.42343
2.29154
0.43282
-0.277075
-0.571446
1.92427
-1.43325
-4.53735
-2.09543
-0.244331
-0.273448
-0.409236
-0.216473
-3.53107
-1.35299
0.162593
4.83029
-1.07722
-0.432887
1.69274
-0.746347
3.45628
1.2346
3.52032
-1.29632
-2.05925
-1.04452
-1.41343
-0.377211
-0.591775
-0.241354
0.354732
2.43871
-1.04627
1.77866
2.10028
1.4062
0.140475
1.44833
0.83624
0.838793
-0.0667967
1.27615
-0.227189
-0.809104
1.83338
0.174289
1.49448
2.32028
0.985268
1.62337
-0.197515
1.33704
1.15903
2.12982
0.7829
0.0308656
-0.561724
0.378507
-1.1195
0.870376
0.123593
-0.896823
-0.535386
0.529542
1.39319
1.05847
0.727801
0.607173
0.950526
0.847194
1.58756
0.522817
0.829811
0.210282
-0.0532336
-0.636065
0.717321
0.0523917
-0.295961
0.535452
1.19012
0.123793
0.258236
0.104341
1.16768
-0.0135396
-0.582304
0.380024
0.701355
0.204802
-0.153734
0.136803
-0.388815
0.0118255
0.336247
0.976863
-0.347082
-0.119903
0.59528
0.271564
0.909066
0.977841
1.18623
0.00171419
-0.794676
-0.459698
-0.0181702
0.741307
-0.0957562
0.541576
0.621632
0.671957
0.24131
0.770989
0.702628
0.144139
0.215125
0.000518815
0.594195
0.629261
0.579272
0.553484
0.688894
0.0161443
0.610767
0.267006
0.969878
0.37141
0.561724
0.529954
0.33552
0.305033
0.18659
0.825495
0.596698
0.103854
0.96704
0.181829
0.749077
0.0389416
0.815058
0.187658
0.55266
0.752831
0.536058
0.727989
0.948698
0.13303
0.832972
0.0969268
0.346019
0.5786
0.132298
0.644185
0.307718
0.0648824
0.0142827
0.610218
0.669332
0.913938
0.527177
0.307779
0.620045
0.67568
0.167882
0.305063
0.7781
0.027192
0.809992
0.767113
0.791406
0.095584
0.359935
0.611713
0.494949
0.110782
0.423292
0.636036
0.15595
0.794946
0.761773
0.270089
0.838404
0.394208
0.822871
0.113498
0.417615
0.759636
0.122471
0.911832
0.276833
0.382611
0.762993
0.128117
0.216437
0.79223
0.866573
0.767296
0.607379
0.219794
0.206549
0.607624
0.320017
0.937529
0.816645
0.497696
0.45967
0.176763
0.860256
0.873379
0.439924
0.0333872
0.54091
0.152013
0.425062
0.26484
0.334666
0.159948
0.673147
0.3867
0.326151
0.249153
0.810297
0.973998
0.929502
0.259774
0.568377
0.57384
0.775079
0.984802
0.0163884
3.71699
-3.18142
1.89205
3.09871
4.3779
0.0498516
2.16367
1.6181
2.14121
-1.84701
0.8117
1.40011
3.06413
-2.01195
2.43541
6.50789
4.20445
1.82795
2.94424
1.53282
1.31493
5.91433
2.68181
1.51797
-4.14508
2.38736
1.85924
-1.43864
3.15051
-3.56896
-1.73926
-4.57963
2.8251
5.5306
1.51832
1.84564
1.92882
2.67728
1.90931
1.72843
0.807821
0.182636
1.36363
0.394641
-0.404586
-0.569398
1.02172
-0.501871
-0.0310662
1.58867
0.977915
-2.33386
-2.68939
2.69731
-0.941002
-4.23105
-0.00367748
0.741669
0.637344
-1.89675
0.268509
-3.33144
0.94899
-0.607712
4.69874
-3.42837
-0.63903
0.802143
-1.14928
3.52923
0.775538
4.08001
-2.58731
-5.23322
-0.969062
0.299394
0.122893
-0.960298
1.12001
2.27484
-4.32999
5.10014
-6.37422
-1.20967
-4.13463
-3.49346
-1.53489
1.07532
-1.15237
2.74291
-0.809442
7.24857
6.14396
-2.62142
0.715698
-0.783561
-1.04116
-0.798213
-3.66665
5.9431
-2.05456
-0.509905
-6.74819
-5.31726
1.27707
6.40826
0.127242
4.01266
0.541389
2.38953
2.30781
1.10402
2.14906
3.0589
0.389717
-0.295067
-0.436282
0.251571
-3.22606
-6.52745
-2.33532
-1.45664
-4.19076
-0.162456
-0.115591
-3.93369
-0.0419694
1.71302
-0.292435
1.10072
-1.14474
7.57794
6.74927
-7.43915
3.41119
2.49096
0.508992
-0.853432
-0.902377
7.92793
-1.22277
1.94334
-5.58646
-4.89192
-7.67155
9.21555
2.01147
1.31823
2.97083
-0.175202
0.111898
-1.78988
3.96785
4.09382
1.94393
-0.0354589
2.49483
0.959178
-1.92076
-4.44907
0.660298
0.318857
0.688009
0.670644
0.579089
0.405316
0.410199
0.0302133
0.509659
0.821833
0.82693
0.908353
0.109684
0.461196
0.162542
0.423261
0.149724
0.135289
0.110904
0.605365
0.70336
0.629872
0.795892
0.140263
0.0421766
0.644032
0.077517
0.0751061
0.642537
0.395917
0.860439
0.518876
0.209265
0.175573
0.560167
0.867946
0.123875
0.626301
0.384045
0.588672
-4.21411
0.922202
-1.91238
-1.8774
-2.18147
-0.604573
-1.06368
-0.415794
-0.970923
0.747247
-0.48721
1.85487
0.538322
-1.43419
-0.428047
-2.96459
-2.57447
-0.762056
-2.3757
1.24047
-1.14573
-2.63124
-2.03727
-1.57655
-0.495829
0.290511
-0.765949
2.01164
0.356905
1.01584
0.755955
1.4155
-0.840574
-2.50912
0.91042
-0.86148
0.0128707
-1.27648
-1.14408
-1.41551
-2.37363
0.265059
1.22537
-2.8343
1.15957
-1.53484
2.54079
0.442598
0.0389016
0.825664
-0.307331
-0.441857
-0.851401
2.54067
-0.287201
0.959476
-2.07128
-0.646743
-0.0994736
-1.07744
-0.161913
0.0131872
0.225055
-2.54284
0.237949
-0.487342
1.33522
-1.48312
0.348195
2.57777
-0.753345
0.634635
0.762425
-1.57261
-0.0221861
-0.435561
2.14631
0.79864
0.577871
0.652525
-1.1216
0.645461
1.15397
-1.70822
0.454803
-0.94544
2.777
1.17328
0.492921
0.63189
-0.337156
-0.505459
0.203849
-1.44733
0.241954
-0.193669
-0.0587104
-1.19412
-0.335957
2.15846
-2.60767
0.539932
-0.346274
-1.31874
1.24539
-0.647735
0.829772
0.226079
-0.266843
0.64018
-0.273723
0.535135
0.304441
-0.501036
-0.172028
-0.0259158
0.775566
0.805524
0.398243
-0.914258
0.174439
-0.17425
1.10418
-1.32313
0.215231
-0.565619
1.31038
-0.123833
0.300355
-0.0283959
-1.49953
-0.109445
-0.741419
1.11595
1.1629
0.420307
-1.70391
-0.608795
-0.400657
-0.472826
-2.13008
0.618308
0.418348
-0.994958
1.05266
-0.346817
0.177169
-0.331413
-0.118316
0.469061
-0.734928
0.791517
0.0974166
1.93537
0.174008
0.203775
0.403845
2.33177
-0.151683
-4.56993
-0.736285
1.1153
0.181915
2.02031
0.404708
0.505833
0.662891
3.11026
0.0617053
-3.992
0.0560075
-0.818061
-0.641825
-0.0251167
-0.329728
-0.39128
-1.56616
-1.92638
-0.225992
2.67171
-1.19143
0.424273
-0.0243074
0.64721
0.00687886
0.439053
0.638689
2.03373
0.247932
-0.793962
0.991653
1.69371
1.25219
-1.87465
0.259475
-1.10996
3.97866
3.1165
0.613395
-0.894519
-0.225949
0.740719
0.655809
-2.36366
0.174155
-0.384714
3.12145
1.63957
0.266088
0.0698338
-1.72735
-0.379526
-0.0705485
-1.01503
0.599954
-0.41521
0.238825
0.465004
0.2678
0.562406
-2.41107
0.960759
0.0972734
-1.82426
0.757211
-0.807671
1.77779
0.157926
0.0548652
1.2545
-1.26092
0.708873
0.169213
2.12242
0.936422
0.912802
1.4036
2.33864
0.129587
-4.41399
-1.12806
0.433368
0.0896382
-1.30387
0.547588
-0.714392
0.437168
-0.0424945
0.455567
0.702427
1.00955
1.14746
1.29066
-1.57264
0.265956
-0.440069
3.93389
2.36572
0.633099
-0.688015
0.273254
0.172587
0.846125
-2.59665
0.530241
-0.92184
1.78092
-0.762634
-0.412632
3.12852
0.0418481
-0.119308
0.377437
-2.31249
-0.314913
-0.87118
0.913402
-1.01872
0.339639
2.67171
0.19615
-0.506479
-0.977736
0.772622
-0.201032
0.775576
-2.55066
-2.75534
-0.400122
1.62382
-1.6202
0.532021
0.366512
1.9177
0.639529
0.709727
1.1321
2.90009
0.198148
-4.63185
-1.3992
-0.0878057
0.0867713
0.332397
0.320214
0.399544
0.295308
1.03207
0.137458
-0.932906
0.683632
0.0708074
-0.567414
2.07889
0.161447
0.387418
-0.968055
0.684522
-0.276019
-0.872376
-2.23608
0.08287
0.366884
0.127639
0.653628
-0.524634
0.61185
1.13133
-0.0374431
-0.434365
-1.36206
-0.668936
-0.900894
1.84658
0.326475
0.81327
-2.84334
-1.41058
-0.43869
0.633844
0.214113
0.126284
0.0218559
1.23204
-0.044403
0.175296
-1.02246
0.453994
-0.518627
-0.412656
-1.24057
-0.883758
-1.14914
0.941301
0.549284
0.787922
-3.04673
-1.39359
-1.07357
1.2865
-1.44389
0.679117
0.0574227
0.678718
0.212475
0.631415
1.06821
1.09304
0.0818339
-2.63817
-1.03987
0.522951
0.318988
0.850093
0.442361
0.0349264
2.58582
2.79561
-0.0678422
-3.16884
-0.743822
0.358526
0.18265
-0.282679
0.471386
-0.249238
1.21992
1.25492
0.292014
-0.814423
-0.261199
0.692747
-0.097263
-1.10365
0.113691
-0.317321
0.985776
0.741101
0.313121
-0.153522
-2.44218
0.488171
-0.42573
-0.673358
1.63884
-0.948864
0.170317
-0.154432
-0.143442
0.161611
-1.64794
0.33183
-0.17732
-0.0726062
0.192851
-0.0890698
1.01042
0.584686
-0.1423
-0.749674
-1.33619
-0.299047
-0.134612
-1.75152
0.117567
-0.322246
0.642821
-0.417111
0.100293
1.39198
-1.50025
0.59871
0.0423707
-2.60476
0.309528
-0.527268
0.372842
-1.02549
0.130719
2.6376
0.32432
0.570452
0.499008
0.381679
-0.941536
-0.233722
1.03076
-0.241486
-0.458819
-0.785875
-0.85897
1.43374
-0.808452
-0.98711
-0.967981
-0.45366
-0.328442
1.12614
1.07823
-0.56767
-0.921351
1.06778
-1.40421
0.201991
0.855326
-0.151418
-0.153983
-0.454027
1.37239
-1.15254
